<?xml version="1.0" encoding="UTF-8" standalone="yes"?>
<PMML xmlns="http://www.dmg.org/PMML-4_3" xmlns:data="http://jpmml.org/jpmml-model/InlineTable" version="4.3">
	<Header>
		<Application name="JPMML-SkLearn" version="1.5.9"/>
		<Timestamp>2018-12-24T16:00:34Z</Timestamp>
	</Header>
	<MiningBuildTask>
		<Extension>PMMLPipeline(steps=[('regressor', LinearRegression(copy_X=True, fit_intercept=True, n_jobs=None,
         normalize=False))])</Extension>
	</MiningBuildTask>
	<DataDictionary>
		<DataField name="y" optype="continuous" dataType="double"/>
		<DataField name="x" optype="continuous" dataType="double"/>
	</DataDictionary>
	<RegressionModel functionName="regression">
		<MiningSchema>
			<MiningField name="y" usageType="target"/>
			<MiningField name="x"/>
		</MiningSchema>
		<RegressionTable intercept="-0.9495378313625586">
			<NumericPredictor name="x" coefficient="1.032966998995286"/>
		</RegressionTable>
	</RegressionModel>
</PMML>
